<?xml version="1.0"?>
<opencv_storage>
<cascade>
  <stageType>BOOST</stageType>
  <featureType>HAAR</featureType>
  <height>28</height>
  <width>45</width>
  <stageParams>
    <boostType>GAB</boostType>
    <minHitRate>9.9900001287460327e-01</minHitRate>
    <maxFalseAlarm>5.0000000000000000e-01</maxFalseAlarm>
    <weightTrimRate>9.4999999999999996e-01</weightTrimRate>
    <maxDepth>2</maxDepth>
    <maxWeakCount>100</maxWeakCount></stageParams>
  <featureParams>
    <maxCatCount>0</maxCatCount>
    <featSize>1</featSize>
    <mode>BASIC</mode></featureParams>
  <stageNum>7</stageNum>
  <stages>
    <!-- stage 0 -->
    <_>
      <maxWeakCount>3</maxWeakCount>
      <stageThreshold>-1.5992561578750610e+00</stageThreshold>
      <weakClassifiers>
        <_>
          <internalNodes>
            1 2 11 1.9933693110942841e-02 0 -1 65 3.1493686139583588e-02
            -2 -3 32 3.8498379290103912e-02</internalNodes>
          <leafValues>
            -9.7051829099655151e-01 5.4716980457305908e-01 -1.
            9.1089111566543579e-01</leafValues></_>
        <_>
          <internalNodes>
            1 2 34 -4.3995019048452377e-02 0 -1 14
            1.9094668328762054e-02 -2 -3 68 -2.6504024863243103e-03</internalNodes>
          <leafValues>
            -8.3065545558929443e-01 8.7942349910736084e-01
            2.9218730330467224e-01 -9.6130049228668213e-01</leafValues></_>
        <_>
          <internalNodes>
            1 2 54 -6.0149759054183960e-02 0 -1 16
            9.0042231604456902e-03 -2 -3 59 -1.4697409234941006e-02</internalNodes>
          <leafValues>
            -1. 8.9584302902221680e-01 2.0191758871078491e-01
            -9.4286471605300903e-01</leafValues></_></weakClassifiers></_>
    <!-- stage 1 -->
    <_>
      <maxWeakCount>3</maxWeakCount>
      <stageThreshold>-1.4723938703536987e+00</stageThreshold>
      <weakClassifiers>
        <_>
          <internalNodes>
            1 2 29 -4.3514091521501541e-02 0 -1 6 6.2746256589889526e-03
            -2 -3 9 2.3843942210078239e-02</internalNodes>
          <leafValues>
            -9.7500002384185791e-01 7.6863753795623779e-01
            -9.4942986965179443e-01 3.5555556416511536e-01</leafValues></_>
        <_>
          <internalNodes>
            1 2 36 -1.0606139898300171e-02 0 -1 49
            5.7395477779209614e-03 -2 -3 2 2.1118223667144775e-02</internalNodes>
          <leafValues>
            -8.3282786607742310e-01 7.9248088598251343e-01
            -9.2907607555389404e-01 5.8921301364898682e-01</leafValues></_>
        <_>
          <internalNodes>
            1 2 25 2.3718299344182014e-02 0 -1 42
            -1.8862221390008926e-02 -2 -3 21 8.7223291397094727e-02</internalNodes>
          <leafValues>
            5.2297365665435791e-01 -8.9887338876724243e-01
            -9.6024066209793091e-01 7.8632885217666626e-01</leafValues></_></weakClassifiers></_>
    <!-- stage 2 -->
    <_>
      <maxWeakCount>3</maxWeakCount>
      <stageThreshold>-2.3984053134918213e+00</stageThreshold>
      <weakClassifiers>
        <_>
          <internalNodes>
            1 2 63 1.3067164458334446e-02 0 -1 60 5.7809032499790192e-02
            -2 -3 33 -1.4934072270989418e-02</internalNodes>
          <leafValues>
            -9.2534381151199341e-01 5.6250000000000000e-01
            6.9832402467727661e-01 -7.1717172861099243e-01</leafValues></_>
        <_>
          <internalNodes>
            1 2 35 -1.9199581816792488e-02 0 -1 45
            -1.4800490811467171e-02 -2 -3 3 1.2997947633266449e-02</internalNodes>
          <leafValues>
            7.8640329837799072e-01 -8.9475041627883911e-01
            -8.3575284481048584e-01 4.5279800891876221e-01</leafValues></_>
        <_>
          <internalNodes>
            1 2 8 -5.8086507022380829e-02 0 -1 27
            -1.4265208505094051e-02 -2 -3 17 2.3064777255058289e-02</internalNodes>
          <leafValues>
            8.6831730604171753e-01 -6.3730871677398682e-01
            -8.2093834877014160e-01 4.7727721929550171e-01</leafValues></_></weakClassifiers></_>
    <!-- stage 3 -->
    <_>
      <maxWeakCount>4</maxWeakCount>
      <stageThreshold>-2.0002479553222656e+00</stageThreshold>
      <weakClassifiers>
        <_>
          <internalNodes>
            1 2 67 1.3164628297090530e-02 0 -1 62 2.4487297981977463e-02
            -2 -3 26 1.9479572772979736e-02</internalNodes>
          <leafValues>
            -9.3294918537139893e-01 4.9206349253654480e-01
            -8.3660131692886353e-01 7.0370370149612427e-01</leafValues></_>
        <_>
          <internalNodes>
            1 2 18 2.1011458709836006e-02 0 -1 56
            -6.4320288598537445e-02 -2 -3 19 5.8272019028663635e-02</internalNodes>
          <leafValues>
            -6.0383561998605728e-02 -8.4984254837036133e-01
            -9.6100944280624390e-01 8.3783322572708130e-01</leafValues></_>
        <_>
          <internalNodes>
            1 2 40 1.2691009789705276e-02 0 -1 43 2.1679598838090897e-02
            -2 -3 20 -5.8324506971985102e-04</internalNodes>
          <leafValues>
            -8.1199109554290771e-01 5.7624483108520508e-01
            -8.9719247817993164e-01 7.1777760982513428e-01</leafValues></_>
        <_>
          <internalNodes>
            1 2 38 1.4799839816987514e-02 0 -1 47
            -7.4778841808438301e-03 -2 -3 48 4.0508285164833069e-03</internalNodes>
          <leafValues>
            5.9266132116317749e-01 -9.2499393224716187e-01
            5.9453475475311279e-01 -9.0000188350677490e-01</leafValues></_></weakClassifiers></_>
    <!-- stage 4 -->
    <_>
      <maxWeakCount>3</maxWeakCount>
      <stageThreshold>-1.7779009342193604e+00</stageThreshold>
      <weakClassifiers>
        <_>
          <internalNodes>
            1 2 41 3.5993615165352821e-03 0 -1 57 5.6532680988311768e-02
            -2 -3 52 -9.7964212298393250e-02</internalNodes>
          <leafValues>
            -9.2261308431625366e-01 -5.8201059699058533e-02
            8.1944441795349121e-01 -6.8253970146179199e-01</leafValues></_>
        <_>
          <internalNodes>
            1 2 30 -1.6871539875864983e-02 0 -1 13
            6.3499119132757187e-03 -2 -3 55 -1.1491942405700684e-01</internalNodes>
          <leafValues>
            -8.5516136884689331e-01 6.7409604787826538e-01
            1.8220435082912445e-01 -8.5092103481292725e-01</leafValues></_>
        <_>
          <internalNodes>
            1 2 10 -1.4072958379983902e-02 0 -1 58
            2.8035505674779415e-03 -2 -3 39 -2.0739471539855003e-02</internalNodes>
          <leafValues>
            -7.8576934337615967e-01 7.2485697269439697e-01
            3.9502575993537903e-01 -8.6453849077224731e-01</leafValues></_></weakClassifiers></_>
    <!-- stage 5 -->
    <_>
      <maxWeakCount>4</maxWeakCount>
      <stageThreshold>-1.9711512327194214e+00</stageThreshold>
      <weakClassifiers>
        <_>
          <internalNodes>
            1 2 1 1.4653465710580349e-02 0 -1 12 9.3043088912963867e-02
            -2 -3 28 6.8448274396359921e-03</internalNodes>
          <leafValues>
            -8.8883697986602783e-01 2.0903955399990082e-01
            -7.1428573131561279e-01 8.1666666269302368e-01</leafValues></_>
        <_>
          <internalNodes>
            1 2 24 1.7812494188547134e-02 0 -1 46 1.3699354603886604e-02
            -2 -3 61 -1.0412605479359627e-02</internalNodes>
          <leafValues>
            -8.6202889680862427e-01 3.0989301204681396e-01
            7.7820467948913574e-01 -7.6130616664886475e-01</leafValues></_>
        <_>
          <internalNodes>
            1 2 66 8.3869230002164841e-03 0 -1 4 -8.5302084684371948e-02
            -2 -3 22 2.6633149012923241e-02</internalNodes>
          <leafValues>
            4.9313929677009583e-01 -7.9731798171997070e-01
            -9.2671519517898560e-01 6.2395912408828735e-01</leafValues></_>
        <_>
          <internalNodes>
            1 2 53 2.8016223222948611e-04 0 -1 50 2.6543522253632545e-03
            -2 -3 0 -1.0161534883081913e-02</internalNodes>
          <leafValues>
            -9.7094327211380005e-01 6.0995113849639893e-01
            5.7703256607055664e-01 -5.8921617269515991e-01</leafValues></_></weakClassifiers></_>
    <!-- stage 6 -->
    <_>
      <maxWeakCount>3</maxWeakCount>
      <stageThreshold>-2.2052614688873291e+00</stageThreshold>
      <weakClassifiers>
        <_>
          <internalNodes>
            1 2 7 -2.7314193546772003e-02 0 -1 37 3.2896059565246105e-03
            -2 -3 5 3.3828534185886383e-02</internalNodes>
          <leafValues>
            -8.5276073217391968e-01 6.6984128952026367e-01
            -9.0629577636718750e-01 3.4883719682693481e-01</leafValues></_>
        <_>
          <internalNodes>
            1 2 64 -8.8740428909659386e-03 0 -1 23
            4.2403843253850937e-03 -2 -3 15 3.6669927835464478e-01</internalNodes>
          <leafValues>
            -6.0890293121337891e-01 7.7789598703384399e-01
            -8.5732823610305786e-01 5.1952403783798218e-01</leafValues></_>
        <_>
          <internalNodes>
            1 2 51 -2.0192340016365051e-02 0 -1 31
            4.9236696213483810e-02 -2 -3 44 -1.5651233494281769e-02</internalNodes>
          <leafValues>
            -7.4359786510467529e-01 6.2848132848739624e-01
            4.8775690793991089e-01 -9.4359511137008667e-01</leafValues></_></weakClassifiers></_></stages>
  <features>
    <_>
      <rects>
        <_>
          0 0 22 9 -1.</_>
        <_>
          0 3 22 3 3.</_></rects>
      <tilted>0</tilted></_>
    <_>
      <rects>
        <_>
          0 1 4 16 -1.</_>
        <_>
          0 1 2 8 2.</_>
        <_>
          2 9 2 8 2.</_></rects>
      <tilted>0</tilted></_>
    <_>
      <rects>
        <_>
          0 11 9 3 -1.</_>
        <_>
          3 11 3 3 3.</_></rects>
      <tilted>0</tilted></_>
    <_>
      <rects>
        <_>
          0 12 6 5 -1.</_>
        <_>
          2 12 2 5 3.</_></rects>
      <tilted>0</tilted></_>
    <_>
      <rects>
        <_>
          1 9 21 6 -1.</_>
        <_>
          8 9 7 6 3.</_></rects>
      <tilted>0</tilted></_>
    <_>
      <rects>
        <_>
          1 10 6 11 -1.</_>
        <_>
          4 10 3 11 2.</_></rects>
      <tilted>0</tilted></_>
    <_>
      <rects>
        <_>
          2 8 41 8 -1.</_>
        <_>
          2 12 41 4 2.</_></rects>
      <tilted>0</tilted></_>
    <_>
      <rects>
        <_>
          2 10 8 8 -1.</_>
        <_>
          6 10 4 8 2.</_></rects>
      <tilted>0</tilted></_>
    <_>
      <rects>
        <_>
          3 10 15 12 -1.</_>
        <_>
          8 10 5 12 3.</_></rects>
      <tilted>0</tilted></_>
    <_>
      <rects>
        <_>
          4 0 1 27 -1.</_>
        <_>
          4 9 1 9 3.</_></rects>
      <tilted>0</tilted></_>
    <_>
      <rects>
        <_>
          5 22 21 4 -1.</_>
        <_>
          5 24 21 2 2.</_></rects>
      <tilted>0</tilted></_>
    <_>
      <rects>
        <_>
          6 7 33 1 -1.</_>
        <_>
          17 7 11 1 3.</_></rects>
      <tilted>0</tilted></_>
    <_>
      <rects>
        <_>
          6 7 33 3 -1.</_>
        <_>
          17 7 11 3 3.</_></rects>
      <tilted>0</tilted></_>
    <_>
      <rects>
        <_>
          7 4 15 4 -1.</_>
        <_>
          7 6 15 2 2.</_></rects>
      <tilted>0</tilted></_>
    <_>
      <rects>
        <_>
          7 5 14 7 -1.</_>
        <_>
          14 5 7 7 2.</_></rects>
      <tilted>0</tilted></_>
    <_>
      <rects>
        <_>
          7 6 33 16 -1.</_>
        <_>
          18 6 11 16 3.</_></rects>
      <tilted>0</tilted></_>
    <_>
      <rects>
        <_>
          8 4 14 6 -1.</_>
        <_>
          15 4 7 6 2.</_></rects>
      <tilted>0</tilted></_>
    <_>
      <rects>
        <_>
          8 8 2 18 -1.</_>
        <_>
          8 14 2 6 3.</_></rects>
      <tilted>0</tilted></_>
    <_>
      <rects>
        <_>
          8 22 30 1 -1.</_>
        <_>
          18 22 10 1 3.</_></rects>
      <tilted>0</tilted></_>
    <_>
      <rects>
        <_>
          10 3 11 24 -1.</_>
        <_>
          10 11 11 8 3.</_></rects>
      <tilted>0</tilted></_>
    <_>
      <rects>
        <_>
          10 7 28 8 -1.</_>
        <_>
          10 11 28 4 2.</_></rects>
      <tilted>0</tilted></_>
    <_>
      <rects>
        <_>
          11 1 23 24 -1.</_>
        <_>
          11 9 23 8 3.</_></rects>
      <tilted>0</tilted></_>
    <_>
      <rects>
        <_>
          11 3 24 6 -1.</_>
        <_>
          19 3 8 6 3.</_></rects>
      <tilted>0</tilted></_>
    <_>
      <rects>
        <_>
          11 6 6 6 -1.</_>
        <_>
          14 6 3 6 2.</_></rects>
      <tilted>0</tilted></_>
    <_>
      <rects>
        <_>
          11 13 14 12 -1.</_>
        <_>
          11 13 7 6 2.</_>
        <_>
          18 19 7 6 2.</_></rects>
      <tilted>0</tilted></_>
    <_>
      <rects>
        <_>
          11 21 24 4 -1.</_>
        <_>
          19 21 8 4 3.</_></rects>
      <tilted>0</tilted></_>
    <_>
      <rects>
        <_>
          12 3 9 8 -1.</_>
        <_>
          12 7 9 4 2.</_></rects>
      <tilted>0</tilted></_>
    <_>
      <rects>
        <_>
          12 4 14 14 -1.</_>
        <_>
          12 4 7 7 2.</_>
        <_>
          19 11 7 7 2.</_></rects>
      <tilted>0</tilted></_>
    <_>
      <rects>
        <_>
          12 5 7 6 -1.</_>
        <_>
          12 8 7 3 2.</_></rects>
      <tilted>0</tilted></_>
    <_>
      <rects>
        <_>
          13 0 18 9 -1.</_>
        <_>
          13 3 18 3 3.</_></rects>
      <tilted>0</tilted></_>
    <_>
      <rects>
        <_>
          13 5 12 8 -1.</_>
        <_>
          13 5 6 4 2.</_>
        <_>
          19 9 6 4 2.</_></rects>
      <tilted>0</tilted></_>
    <_>
      <rects>
        <_>
          13 9 25 18 -1.</_>
        <_>
          13 15 25 6 3.</_></rects>
      <tilted>0</tilted></_>
    <_>
      <rects>
        <_>
          14 2 20 12 -1.</_>
        <_>
          14 8 20 6 2.</_></rects>
      <tilted>0</tilted></_>
    <_>
      <rects>
        <_>
          14 19 9 8 -1.</_>
        <_>
          14 23 9 4 2.</_></rects>
      <tilted>0</tilted></_>
    <_>
      <rects>
        <_>
          14 19 19 8 -1.</_>
        <_>
          14 23 19 4 2.</_></rects>
      <tilted>0</tilted></_>
    <_>
      <rects>
        <_>
          14 22 17 6 -1.</_>
        <_>
          14 24 17 2 3.</_></rects>
      <tilted>0</tilted></_>
    <_>
      <rects>
        <_>
          16 4 8 10 -1.</_>
        <_>
          16 4 4 5 2.</_>
        <_>
          20 9 4 5 2.</_></rects>
      <tilted>0</tilted></_>
    <_>
      <rects>
        <_>
          17 3 12 5 -1.</_>
        <_>
          21 3 4 5 3.</_></rects>
      <tilted>0</tilted></_>
    <_>
      <rects>
        <_>
          17 12 16 15 -1.</_>
        <_>
          17 17 16 5 3.</_></rects>
      <tilted>0</tilted></_>
    <_>
      <rects>
        <_>
          18 21 11 6 -1.</_>
        <_>
          18 23 11 2 3.</_></rects>
      <tilted>0</tilted></_>
    <_>
      <rects>
        <_>
          20 3 4 9 -1.</_>
        <_>
          20 6 4 3 3.</_></rects>
      <tilted>0</tilted></_>
    <_>
      <rects>
        <_>
          20 18 5 4 -1.</_>
        <_>
          20 20 5 2 2.</_></rects>
      <tilted>0</tilted></_>
    <_>
      <rects>
        <_>
          21 19 18 2 -1.</_>
        <_>
          27 19 6 2 3.</_></rects>
      <tilted>0</tilted></_>
    <_>
      <rects>
        <_>
          23 1 7 6 -1.</_>
        <_>
          23 4 7 3 2.</_></rects>
      <tilted>0</tilted></_>
    <_>
      <rects>
        <_>
          23 4 8 8 -1.</_>
        <_>
          23 4 4 4 2.</_>
        <_>
          27 8 4 4 2.</_></rects>
      <tilted>0</tilted></_>
    <_>
      <rects>
        <_>
          23 5 14 5 -1.</_>
        <_>
          30 5 7 5 2.</_></rects>
      <tilted>0</tilted></_>
    <_>
      <rects>
        <_>
          23 17 12 2 -1.</_>
        <_>
          27 17 4 2 3.</_></rects>
      <tilted>0</tilted></_>
    <_>
      <rects>
        <_>
          23 21 6 6 -1.</_>
        <_>
          23 21 3 3 2.</_>
        <_>
          26 24 3 3 2.</_></rects>
      <tilted>0</tilted></_>
    <_>
      <rects>
        <_>
          24 13 13 8 -1.</_>
        <_>
          24 17 13 4 2.</_></rects>
      <tilted>0</tilted></_>
    <_>
      <rects>
        <_>
          25 4 10 8 -1.</_>
        <_>
          25 8 10 4 2.</_></rects>
      <tilted>0</tilted></_>
    <_>
      <rects>
        <_>
          25 9 6 1 -1.</_>
        <_>
          28 9 3 1 2.</_></rects>
      <tilted>0</tilted></_>
    <_>
      <rects>
        <_>
          26 2 12 11 -1.</_>
        <_>
          32 2 6 11 2.</_></rects>
      <tilted>0</tilted></_>
    <_>
      <rects>
        <_>
          26 8 18 20 -1.</_>
        <_>
          32 8 6 20 3.</_></rects>
      <tilted>0</tilted></_>
    <_>
      <rects>
        <_>
          26 8 9 2 -1.</_>
        <_>
          26 9 9 1 2.</_></rects>
      <tilted>0</tilted></_>
    <_>
      <rects>
        <_>
          28 7 15 13 -1.</_>
        <_>
          33 7 5 13 3.</_></rects>
      <tilted>0</tilted></_>
    <_>
      <rects>
        <_>
          28 9 15 12 -1.</_>
        <_>
          33 9 5 12 3.</_></rects>
      <tilted>0</tilted></_>
    <_>
      <rects>
        <_>
          31 7 12 17 -1.</_>
        <_>
          35 7 4 17 3.</_></rects>
      <tilted>0</tilted></_>
    <_>
      <rects>
        <_>
          35 7 8 13 -1.</_>
        <_>
          39 7 4 13 2.</_></rects>
      <tilted>0</tilted></_>
    <_>
      <rects>
        <_>
          35 8 10 12 -1.</_>
        <_>
          35 12 10 4 3.</_></rects>
      <tilted>0</tilted></_>
    <_>
      <rects>
        <_>
          35 14 9 4 -1.</_>
        <_>
          38 14 3 4 3.</_></rects>
      <tilted>0</tilted></_>
    <_>
      <rects>
        <_>
          36 9 9 11 -1.</_>
        <_>
          39 9 3 11 3.</_></rects>
      <tilted>0</tilted></_>
    <_>
      <rects>
        <_>
          38 14 5 12 -1.</_>
        <_>
          38 20 5 6 2.</_></rects>
      <tilted>0</tilted></_>
    <_>
      <rects>
        <_>
          39 1 1 27 -1.</_>
        <_>
          39 10 1 9 3.</_></rects>
      <tilted>0</tilted></_>
    <_>
      <rects>
        <_>
          39 10 6 8 -1.</_>
        <_>
          41 10 2 8 3.</_></rects>
      <tilted>0</tilted></_>
    <_>
      <rects>
        <_>
          41 0 4 20 -1.</_>
        <_>
          41 0 2 10 2.</_>
        <_>
          43 10 2 10 2.</_></rects>
      <tilted>0</tilted></_>
    <_>
      <rects>
        <_>
          41 1 1 27 -1.</_>
        <_>
          41 10 1 9 3.</_></rects>
      <tilted>0</tilted></_>
    <_>
      <rects>
        <_>
          41 5 2 15 -1.</_>
        <_>
          41 10 2 5 3.</_></rects>
      <tilted>0</tilted></_>
    <_>
      <rects>
        <_>
          42 4 1 21 -1.</_>
        <_>
          42 11 1 7 3.</_></rects>
      <tilted>0</tilted></_>
    <_>
      <rects>
        <_>
          42 13 2 3 -1.</_>
        <_>
          43 13 1 3 2.</_></rects>
      <tilted>0</tilted></_></features></cascade>
</opencv_storage>
