<?xml version="1.0"?>
<opencv_storage>
<cascade>
  <stageType>BOOST</stageType>
  <featureType>HAAR</featureType>
  <height>28</height>
  <width>45</width>
  <stageParams>
    <boostType>GAB</boostType>
    <minHitRate>9.9900001287460327e-01</minHitRate>
    <maxFalseAlarm>5.0000000000000000e-01</maxFalseAlarm>
    <weightTrimRate>9.4999999999999996e-01</weightTrimRate>
    <maxDepth>1</maxDepth>
    <maxWeakCount>100</maxWeakCount></stageParams>
  <featureParams>
    <maxCatCount>0</maxCatCount>
    <featSize>1</featSize>
    <mode>BASIC</mode></featureParams>
  <stageNum>10</stageNum>
  <stages>
    <!-- stage 0 -->
    <_>
      <maxWeakCount>4</maxWeakCount>
      <stageThreshold>-1.9416959285736084e+00</stageThreshold>
      <weakClassifiers>
        <_>
          <internalNodes>
            0 -1 13 1.9933693110942841e-02</internalNodes>
          <leafValues>
            -9.3320965766906738e-01 5.4400002956390381e-01</leafValues></_>
        <_>
          <internalNodes>
            0 -1 56 2.2210329771041870e-02</internalNodes>
          <leafValues>
            -8.7437212467193604e-01 6.8968111276626587e-01</leafValues></_>
        <_>
          <internalNodes>
            0 -1 25 -3.4918442368507385e-02</internalNodes>
          <leafValues>
            6.2993490695953369e-01 -8.5091221332550049e-01</leafValues></_>
        <_>
          <internalNodes>
            0 -1 46 -6.1985597014427185e-02</internalNodes>
          <leafValues>
            7.1679800748825073e-01 -7.5845915079116821e-01</leafValues></_></weakClassifiers></_>
    <!-- stage 1 -->
    <_>
      <maxWeakCount>3</maxWeakCount>
      <stageThreshold>-1.2942153215408325e+00</stageThreshold>
      <weakClassifiers>
        <_>
          <internalNodes>
            0 -1 28 4.2419560253620148e-02</internalNodes>
          <leafValues>
            -9.3679243326187134e-01 4.5895522832870483e-01</leafValues></_>
        <_>
          <internalNodes>
            0 -1 7 -6.6429764032363892e-02</internalNodes>
          <leafValues>
            6.8176817893981934e-01 -8.0938780307769775e-01</leafValues></_>
        <_>
          <internalNodes>
            0 -1 4 4.3654784560203552e-02</internalNodes>
          <leafValues>
            -9.4378274679183960e-01 5.0327509641647339e-01</leafValues></_></weakClassifiers></_>
    <!-- stage 2 -->
    <_>
      <maxWeakCount>4</maxWeakCount>
      <stageThreshold>-2.0711884498596191e+00</stageThreshold>
      <weakClassifiers>
        <_>
          <internalNodes>
            0 -1 53 1.1047418229281902e-02</internalNodes>
          <leafValues>
            -8.9055192470550537e-01 3.1660231947898865e-01</leafValues></_>
        <_>
          <internalNodes>
            0 -1 21 1.4652533456683159e-02</internalNodes>
          <leafValues>
            -7.4196493625640869e-01 6.9009625911712646e-01</leafValues></_>
        <_>
          <internalNodes>
            0 -1 16 4.3537244200706482e-02</internalNodes>
          <leafValues>
            -9.0970015525817871e-01 4.9213606119155884e-01</leafValues></_>
        <_>
          <internalNodes>
            0 -1 15 8.8455071672797203e-03</internalNodes>
          <leafValues>
            -7.3612570762634277e-01 5.3550398349761963e-01</leafValues></_></weakClassifiers></_>
    <!-- stage 3 -->
    <_>
      <maxWeakCount>6</maxWeakCount>
      <stageThreshold>-2.3207747936248779e+00</stageThreshold>
      <weakClassifiers>
        <_>
          <internalNodes>
            0 -1 47 -8.9857369661331177e-02</internalNodes>
          <leafValues>
            4.1561713814735413e-01 -8.4329348802566528e-01</leafValues></_>
        <_>
          <internalNodes>
            0 -1 23 1.5484337694942951e-02</internalNodes>
          <leafValues>
            -7.7591776847839355e-01 5.1679295301437378e-01</leafValues></_>
        <_>
          <internalNodes>
            0 -1 30 -7.7783308923244476e-02</internalNodes>
          <leafValues>
            4.7913876175880432e-01 -7.5269067287445068e-01</leafValues></_>
        <_>
          <internalNodes>
            0 -1 38 2.8253793716430664e-03</internalNodes>
          <leafValues>
            -7.0115035772323608e-01 5.0762176513671875e-01</leafValues></_>
        <_>
          <internalNodes>
            0 -1 43 -2.3595841601490974e-02</internalNodes>
          <leafValues>
            3.8837370276451111e-01 -8.3005422353744507e-01</leafValues></_>
        <_>
          <internalNodes>
            0 -1 5 1.7323447391390800e-02</internalNodes>
          <leafValues>
            -9.4007468223571777e-01 3.7355959415435791e-01</leafValues></_></weakClassifiers></_>
    <!-- stage 4 -->
    <_>
      <maxWeakCount>5</maxWeakCount>
      <stageThreshold>-1.6438517570495605e+00</stageThreshold>
      <weakClassifiers>
        <_>
          <internalNodes>
            0 -1 2 1.7197076231241226e-02</internalNodes>
          <leafValues>
            -8.2145923376083374e-01 5.3374230861663818e-01</leafValues></_>
        <_>
          <internalNodes>
            0 -1 49 1.4507616870105267e-02</internalNodes>
          <leafValues>
            -8.1397187709808350e-01 3.8015791773796082e-01</leafValues></_>
        <_>
          <internalNodes>
            0 -1 17 2.2023752331733704e-02</internalNodes>
          <leafValues>
            -9.0033817291259766e-01 3.9023467898368835e-01</leafValues></_>
        <_>
          <internalNodes>
            0 -1 35 -1.3537181541323662e-02</internalNodes>
          <leafValues>
            4.9456343054771423e-01 -7.5047254562377930e-01</leafValues></_>
        <_>
          <internalNodes>
            0 -1 24 7.9004190862178802e-02</internalNodes>
          <leafValues>
            -8.3227241039276123e-01 3.9735409617424011e-01</leafValues></_></weakClassifiers></_>
    <!-- stage 5 -->
    <_>
      <maxWeakCount>6</maxWeakCount>
      <stageThreshold>-2.1465740203857422e+00</stageThreshold>
      <weakClassifiers>
        <_>
          <internalNodes>
            0 -1 52 1.4279553666710854e-02</internalNodes>
          <leafValues>
            -8.5839891433715820e-01 2.3232322931289673e-01</leafValues></_>
        <_>
          <internalNodes>
            0 -1 39 1.3008162379264832e-02</internalNodes>
          <leafValues>
            -7.2131025791168213e-01 4.7714886069297791e-01</leafValues></_>
        <_>
          <internalNodes>
            0 -1 18 2.1715104579925537e-02</internalNodes>
          <leafValues>
            -6.6154724359512329e-01 5.1493078470230103e-01</leafValues></_>
        <_>
          <internalNodes>
            0 -1 6 1.7006304115056992e-02</internalNodes>
          <leafValues>
            -5.5190354585647583e-01 6.0316169261932373e-01</leafValues></_>
        <_>
          <internalNodes>
            0 -1 10 3.2857082784175873e-02</internalNodes>
          <leafValues>
            -8.8965284824371338e-01 3.5551154613494873e-01</leafValues></_>
        <_>
          <internalNodes>
            0 -1 41 -1.2675585225224495e-02</internalNodes>
          <leafValues>
            2.9670301079750061e-01 -8.6399090290069580e-01</leafValues></_></weakClassifiers></_>
    <!-- stage 6 -->
    <_>
      <maxWeakCount>8</maxWeakCount>
      <stageThreshold>-2.6245419979095459e+00</stageThreshold>
      <weakClassifiers>
        <_>
          <internalNodes>
            0 -1 55 2.1787047386169434e-02</internalNodes>
          <leafValues>
            -8.1833833456039429e-01 4.8348349332809448e-01</leafValues></_>
        <_>
          <internalNodes>
            0 -1 37 2.1814888343214989e-02</internalNodes>
          <leafValues>
            -6.8362212181091309e-01 5.5750030279159546e-01</leafValues></_>
        <_>
          <internalNodes>
            0 -1 11 -7.3256045579910278e-02</internalNodes>
          <leafValues>
            6.2949252128601074e-01 -6.0668683052062988e-01</leafValues></_>
        <_>
          <internalNodes>
            0 -1 29 1.5380951575934887e-02</internalNodes>
          <leafValues>
            -8.2439959049224854e-01 3.7721586227416992e-01</leafValues></_>
        <_>
          <internalNodes>
            0 -1 49 1.4298312366008759e-02</internalNodes>
          <leafValues>
            -7.0293867588043213e-01 4.8326572775840759e-01</leafValues></_>
        <_>
          <internalNodes>
            0 -1 45 -2.1878458559513092e-02</internalNodes>
          <leafValues>
            3.8184118270874023e-01 -7.0368313789367676e-01</leafValues></_>
        <_>
          <internalNodes>
            0 -1 22 3.5770472139120102e-02</internalNodes>
          <leafValues>
            -8.2304167747497559e-01 2.9536756873130798e-01</leafValues></_>
        <_>
          <internalNodes>
            0 -1 14 5.6376289576292038e-02</internalNodes>
          <leafValues>
            -9.2438030242919922e-01 2.1814379096031189e-01</leafValues></_></weakClassifiers></_>
    <!-- stage 7 -->
    <_>
      <maxWeakCount>8</maxWeakCount>
      <stageThreshold>-2.0503060817718506e+00</stageThreshold>
      <weakClassifiers>
        <_>
          <internalNodes>
            0 -1 27 9.7641693428158760e-03</internalNodes>
          <leafValues>
            -8.3049327135086060e-01 2.6291078329086304e-01</leafValues></_>
        <_>
          <internalNodes>
            0 -1 50 2.8280861675739288e-02</internalNodes>
          <leafValues>
            -6.8304061889648438e-01 4.2305359244346619e-01</leafValues></_>
        <_>
          <internalNodes>
            0 -1 34 -1.2684419751167297e-02</internalNodes>
          <leafValues>
            5.6500995159149170e-01 -5.3704208135604858e-01</leafValues></_>
        <_>
          <internalNodes>
            0 -1 31 4.1972948238253593e-03</internalNodes>
          <leafValues>
            -7.7973800897598267e-01 3.5721355676651001e-01</leafValues></_>
        <_>
          <internalNodes>
            0 -1 42 -2.4591296911239624e-02</internalNodes>
          <leafValues>
            2.6434162259101868e-01 -8.8591516017913818e-01</leafValues></_>
        <_>
          <internalNodes>
            0 -1 33 8.6199287325143814e-03</internalNodes>
          <leafValues>
            -4.1081827878952026e-01 6.1162668466567993e-01</leafValues></_>
        <_>
          <internalNodes>
            0 -1 36 -3.9887549355626106e-03</internalNodes>
          <leafValues>
            -9.2957317829132080e-01 2.6952660083770752e-01</leafValues></_>
        <_>
          <internalNodes>
            0 -1 54 -1.3081058859825134e-02</internalNodes>
          <leafValues>
            6.5695792436599731e-01 -4.3229562044143677e-01</leafValues></_></weakClassifiers></_>
    <!-- stage 8 -->
    <_>
      <maxWeakCount>8</maxWeakCount>
      <stageThreshold>-2.4416158199310303e+00</stageThreshold>
      <weakClassifiers>
        <_>
          <internalNodes>
            0 -1 9 1.8130587413907051e-02</internalNodes>
          <leafValues>
            -8.2042253017425537e-01 3.2291665673255920e-01</leafValues></_>
        <_>
          <internalNodes>
            0 -1 40 -1.8046707846224308e-03</internalNodes>
          <leafValues>
            3.7468135356903076e-01 -7.4665755033493042e-01</leafValues></_>
        <_>
          <internalNodes>
            0 -1 3 -3.7820644676685333e-02</internalNodes>
          <leafValues>
            4.6458032727241516e-01 -5.9795713424682617e-01</leafValues></_>
        <_>
          <internalNodes>
            0 -1 51 -1.6710899770259857e-02</internalNodes>
          <leafValues>
            4.6902891993522644e-01 -5.7099467515945435e-01</leafValues></_>
        <_>
          <internalNodes>
            0 -1 32 1.9008122384548187e-02</internalNodes>
          <leafValues>
            -8.6547249555587769e-01 3.1018918752670288e-01</leafValues></_>
        <_>
          <internalNodes>
            0 -1 19 4.8989228904247284e-02</internalNodes>
          <leafValues>
            -9.2869609594345093e-01 2.6436924934387207e-01</leafValues></_>
        <_>
          <internalNodes>
            0 -1 11 -7.3256045579910278e-02</internalNodes>
          <leafValues>
            4.6440768241882324e-01 -5.4840683937072754e-01</leafValues></_>
        <_>
          <internalNodes>
            0 -1 48 2.4685137905180454e-03</internalNodes>
          <leafValues>
            -7.2254651784896851e-01 3.6395207047462463e-01</leafValues></_></weakClassifiers></_>
    <!-- stage 9 -->
    <_>
      <maxWeakCount>7</maxWeakCount>
      <stageThreshold>-2.1431739330291748e+00</stageThreshold>
      <weakClassifiers>
        <_>
          <internalNodes>
            0 -1 1 8.0450354143977165e-03</internalNodes>
          <leafValues>
            -8.0360203981399536e-01 4.1358023881912231e-01</leafValues></_>
        <_>
          <internalNodes>
            0 -1 26 1.1903274804353714e-02</internalNodes>
          <leafValues>
            -7.5848352909088135e-01 3.7563848495483398e-01</leafValues></_>
        <_>
          <internalNodes>
            0 -1 12 -4.3635610491037369e-02</internalNodes>
          <leafValues>
            4.1827911138534546e-01 -6.4931720495223999e-01</leafValues></_>
        <_>
          <internalNodes>
            0 -1 0 -1.8111361190676689e-02</internalNodes>
          <leafValues>
            7.1397948265075684e-01 -4.2847132682800293e-01</leafValues></_>
        <_>
          <internalNodes>
            0 -1 44 -1.1954069137573242e-01</internalNodes>
          <leafValues>
            5.1063615083694458e-01 -4.8190751671791077e-01</leafValues></_>
        <_>
          <internalNodes>
            0 -1 20 -2.9879767447710037e-02</internalNodes>
          <leafValues>
            3.3694490790367126e-01 -7.1079361438751221e-01</leafValues></_>
        <_>
          <internalNodes>
            0 -1 8 8.2191582769155502e-03</internalNodes>
          <leafValues>
            -3.6856040358543396e-01 6.2180507183074951e-01</leafValues></_></weakClassifiers></_></stages>
  <features>
    <_>
      <rects>
        <_>
          0 11 6 16 -1.</_>
        <_>
          0 11 3 8 2.</_>
        <_>
          3 19 3 8 2.</_></rects>
      <tilted>0</tilted></_>
    <_>
      <rects>
        <_>
          0 12 6 3 -1.</_>
        <_>
          2 12 2 3 3.</_></rects>
      <tilted>0</tilted></_>
    <_>
      <rects>
        <_>
          1 10 6 9 -1.</_>
        <_>
          3 10 2 9 3.</_></rects>
      <tilted>0</tilted></_>
    <_>
      <rects>
        <_>
          2 0 27 9 -1.</_>
        <_>
          2 3 27 3 3.</_></rects>
      <tilted>0</tilted></_>
    <_>
      <rects>
        <_>
          2 4 32 10 -1.</_>
        <_>
          2 9 32 5 2.</_></rects>
      <tilted>0</tilted></_>
    <_>
      <rects>
        <_>
          2 7 43 10 -1.</_>
        <_>
          2 12 43 5 2.</_></rects>
      <tilted>0</tilted></_>
    <_>
      <rects>
        <_>
          2 9 10 18 -1.</_>
        <_>
          2 9 5 9 2.</_>
        <_>
          7 18 5 9 2.</_></rects>
      <tilted>0</tilted></_>
    <_>
      <rects>
        <_>
          2 9 15 13 -1.</_>
        <_>
          7 9 5 13 3.</_></rects>
      <tilted>0</tilted></_>
    <_>
      <rects>
        <_>
          2 12 6 12 -1.</_>
        <_>
          2 12 3 6 2.</_>
        <_>
          5 18 3 6 2.</_></rects>
      <tilted>0</tilted></_>
    <_>
      <rects>
        <_>
          3 2 1 24 -1.</_>
        <_>
          3 10 1 8 3.</_></rects>
      <tilted>0</tilted></_>
    <_>
      <rects>
        <_>
          3 4 17 12 -1.</_>
        <_>
          3 10 17 6 2.</_></rects>
      <tilted>0</tilted></_>
    <_>
      <rects>
        <_>
          4 8 15 15 -1.</_>
        <_>
          9 8 5 15 3.</_></rects>
      <tilted>0</tilted></_>
    <_>
      <rects>
        <_>
          6 0 35 9 -1.</_>
        <_>
          6 3 35 3 3.</_></rects>
      <tilted>0</tilted></_>
    <_>
      <rects>
        <_>
          6 7 33 1 -1.</_>
        <_>
          17 7 11 1 3.</_></rects>
      <tilted>0</tilted></_>
    <_>
      <rects>
        <_>
          7 3 33 7 -1.</_>
        <_>
          18 3 11 7 3.</_></rects>
      <tilted>0</tilted></_>
    <_>
      <rects>
        <_>
          7 4 14 6 -1.</_>
        <_>
          7 4 7 3 2.</_>
        <_>
          14 7 7 3 2.</_></rects>
      <tilted>0</tilted></_>
    <_>
      <rects>
        <_>
          8 4 30 5 -1.</_>
        <_>
          18 4 10 5 3.</_></rects>
      <tilted>0</tilted></_>
    <_>
      <rects>
        <_>
          8 5 14 6 -1.</_>
        <_>
          15 5 7 6 2.</_></rects>
      <tilted>0</tilted></_>
    <_>
      <rects>
        <_>
          8 21 30 2 -1.</_>
        <_>
          18 21 10 2 3.</_></rects>
      <tilted>0</tilted></_>
    <_>
      <rects>
        <_>
          9 3 30 7 -1.</_>
        <_>
          19 3 10 7 3.</_></rects>
      <tilted>0</tilted></_>
    <_>
      <rects>
        <_>
          9 15 17 12 -1.</_>
        <_>
          9 21 17 6 2.</_></rects>
      <tilted>0</tilted></_>
    <_>
      <rects>
        <_>
          9 22 27 1 -1.</_>
        <_>
          18 22 9 1 3.</_></rects>
      <tilted>0</tilted></_>
    <_>
      <rects>
        <_>
          11 3 24 15 -1.</_>
        <_>
          11 8 24 5 3.</_></rects>
      <tilted>0</tilted></_>
    <_>
      <rects>
        <_>
          11 14 14 10 -1.</_>
        <_>
          11 14 7 5 2.</_>
        <_>
          18 19 7 5 2.</_></rects>
      <tilted>0</tilted></_>
    <_>
      <rects>
        <_>
          12 1 22 21 -1.</_>
        <_>
          12 8 22 7 3.</_></rects>
      <tilted>0</tilted></_>
    <_>
      <rects>
        <_>
          12 19 21 8 -1.</_>
        <_>
          12 23 21 4 2.</_></rects>
      <tilted>0</tilted></_>
    <_>
      <rects>
        <_>
          13 13 12 12 -1.</_>
        <_>
          13 13 6 6 2.</_>
        <_>
          19 19 6 6 2.</_></rects>
      <tilted>0</tilted></_>
    <_>
      <rects>
        <_>
          13 18 10 6 -1.</_>
        <_>
          13 18 5 3 2.</_>
        <_>
          18 21 5 3 2.</_></rects>
      <tilted>0</tilted></_>
    <_>
      <rects>
        <_>
          14 2 16 8 -1.</_>
        <_>
          14 6 16 4 2.</_></rects>
      <tilted>0</tilted></_>
    <_>
      <rects>
        <_>
          15 13 16 15 -1.</_>
        <_>
          15 18 16 5 3.</_></rects>
      <tilted>0</tilted></_>
    <_>
      <rects>
        <_>
          15 15 30 12 -1.</_>
        <_>
          15 21 30 6 2.</_></rects>
      <tilted>0</tilted></_>
    <_>
      <rects>
        <_>
          16 3 12 5 -1.</_>
        <_>
          20 3 4 5 3.</_></rects>
      <tilted>0</tilted></_>
    <_>
      <rects>
        <_>
          16 12 21 15 -1.</_>
        <_>
          16 17 21 5 3.</_></rects>
      <tilted>0</tilted></_>
    <_>
      <rects>
        <_>
          17 10 6 16 -1.</_>
        <_>
          17 10 3 8 2.</_>
        <_>
          20 18 3 8 2.</_></rects>
      <tilted>0</tilted></_>
    <_>
      <rects>
        <_>
          17 22 11 6 -1.</_>
        <_>
          17 24 11 2 3.</_></rects>
      <tilted>0</tilted></_>
    <_>
      <rects>
        <_>
          18 21 21 4 -1.</_>
        <_>
          18 23 21 2 2.</_></rects>
      <tilted>0</tilted></_>
    <_>
      <rects>
        <_>
          19 0 6 24 -1.</_>
        <_>
          19 12 6 12 2.</_></rects>
      <tilted>0</tilted></_>
    <_>
      <rects>
        <_>
          20 3 5 9 -1.</_>
        <_>
          20 6 5 3 3.</_></rects>
      <tilted>0</tilted></_>
    <_>
      <rects>
        <_>
          21 3 1 9 -1.</_>
        <_>
          21 6 1 3 3.</_></rects>
      <tilted>0</tilted></_>
    <_>
      <rects>
        <_>
          21 5 10 8 -1.</_>
        <_>
          21 5 5 4 2.</_>
        <_>
          26 9 5 4 2.</_></rects>
      <tilted>0</tilted></_>
    <_>
      <rects>
        <_>
          21 6 3 6 -1.</_>
        <_>
          21 9 3 3 2.</_></rects>
      <tilted>0</tilted></_>
    <_>
      <rects>
        <_>
          23 4 14 6 -1.</_>
        <_>
          30 4 7 6 2.</_></rects>
      <tilted>0</tilted></_>
    <_>
      <rects>
        <_>
          24 13 21 12 -1.</_>
        <_>
          24 19 21 6 2.</_></rects>
      <tilted>0</tilted></_>
    <_>
      <rects>
        <_>
          26 0 18 13 -1.</_>
        <_>
          32 0 6 13 3.</_></rects>
      <tilted>0</tilted></_>
    <_>
      <rects>
        <_>
          26 3 18 23 -1.</_>
        <_>
          32 3 6 23 3.</_></rects>
      <tilted>0</tilted></_>
    <_>
      <rects>
        <_>
          27 14 17 10 -1.</_>
        <_>
          27 19 17 5 2.</_></rects>
      <tilted>0</tilted></_>
    <_>
      <rects>
        <_>
          28 7 15 17 -1.</_>
        <_>
          33 7 5 17 3.</_></rects>
      <tilted>0</tilted></_>
    <_>
      <rects>
        <_>
          28 8 15 12 -1.</_>
        <_>
          33 8 5 12 3.</_></rects>
      <tilted>0</tilted></_>
    <_>
      <rects>
        <_>
          28 9 9 9 -1.</_>
        <_>
          28 12 9 3 3.</_></rects>
      <tilted>0</tilted></_>
    <_>
      <rects>
        <_>
          35 10 8 7 -1.</_>
        <_>
          39 10 4 7 2.</_></rects>
      <tilted>0</tilted></_>
    <_>
      <rects>
        <_>
          35 10 8 8 -1.</_>
        <_>
          39 10 4 8 2.</_></rects>
      <tilted>0</tilted></_>
    <_>
      <rects>
        <_>
          35 10 8 18 -1.</_>
        <_>
          35 10 4 9 2.</_>
        <_>
          39 19 4 9 2.</_></rects>
      <tilted>0</tilted></_>
    <_>
      <rects>
        <_>
          39 10 6 7 -1.</_>
        <_>
          41 10 2 7 3.</_></rects>
      <tilted>0</tilted></_>
    <_>
      <rects>
        <_>
          39 11 6 7 -1.</_>
        <_>
          41 11 2 7 3.</_></rects>
      <tilted>0</tilted></_>
    <_>
      <rects>
        <_>
          41 0 4 20 -1.</_>
        <_>
          41 0 2 10 2.</_>
        <_>
          43 10 2 10 2.</_></rects>
      <tilted>0</tilted></_>
    <_>
      <rects>
        <_>
          41 3 1 24 -1.</_>
        <_>
          41 11 1 8 3.</_></rects>
      <tilted>0</tilted></_>
    <_>
      <rects>
        <_>
          41 4 2 21 -1.</_>
        <_>
          41 11 2 7 3.</_></rects>
      <tilted>0</tilted></_></features></cascade>
</opencv_storage>
